digraph Tree {
node [shape=box, style="rounded", color="black", fontname="helvetica"] ;
edge [fontname="helvetica"] ;
0 [label="bed_time <= 0.198\ngini = 0.748\nsamples = 132\nvalue = [0, 61, 45, 1, 3, 74, 10, 1, 1, 1, 9, 2, 1, 4]\nclass = CS"] ;
1 [label="bed_time <= 0.016\ngini = 0.686\nsamples = 83\nvalue = [0, 34, 20, 0, 0, 65, 9, 0, 0, 0, 5, 2, 0, 2]\nclass = CS"] ;
0 -> 1 [labeldistance=2.5, labelangle=45, headlabel="True"] ;
2 [label="course_ML <= 0.5\ngini = 0.699\nsamples = 23\nvalue = [0, 3, 14, 0, 0, 19, 2, 0, 0, 0, 2, 2, 0, 2]\nclass = CS"] ;
1 -> 2 ;
3 [label="(...)"] ;
2 -> 3 ;
12 [label="(...)"] ;
2 -> 12 ;
39 [label="course_statistics <= 0.5\ngini = 0.633\nsamples = 60\nvalue = [0, 31, 6, 0, 0, 46, 7, 0, 0, 0, 3, 0, 0, 0]\nclass = CS"] ;
1 -> 39 ;
40 [label="(...)"] ;
39 -> 40 ;
41 [label="(...)"] ;
39 -> 41 ;
114 [label="bed_time <= 0.965\ngini = 0.745\nsamples = 49\nvalue = [0, 27, 25, 1, 3, 9, 1, 1, 1, 1, 4, 0, 1, 2]\nclass = Data Mining"] ;
0 -> 114 [labeldistance=2.5, labelangle=-45, headlabel="False"] ;
115 [label="bed_time <= 0.928\ngini = 0.76\nsamples = 31\nvalue = [0, 11, 18, 1, 3, 8, 1, 1, 1, 0, 3, 0, 0, 0]\nclass = QRM"] ;
114 -> 115 ;
116 [label="(...)"] ;
115 -> 116 ;
125 [label="(...)"] ;
115 -> 125 ;
164 [label="course_statistics <= 0.5\ngini = 0.628\nsamples = 18\nvalue = [0, 16, 7, 0, 0, 1, 0, 0, 0, 1, 1, 0, 1, 2]\nclass = Data Mining"] ;
114 -> 164 ;
165 [label="(...)"] ;
164 -> 165 ;
166 [label="(...)"] ;
164 -> 166 ;
}